{
  "object_classifier_type": "OpenCVMLClassifier",
  "featureExtractor": {
    "feature_extractor_type": "NormalizedFeatureExtractor",
    "featureExtractor": {
      "feature_extractor_type": "DefaultFeatureExtractor",
      "measurements": [
        "Detection probability",
        "Nucleus: Area µm^2",
        "Nucleus: Length µm",
        "Nucleus: Circularity",
        "Nucleus: Solidity",
        "Nucleus: Max diameter µm",
        "Nucleus: Min diameter µm",
        "Cell: Area µm^2",
        "Cell: Length µm",
        "Cell: Circularity",
        "Cell: Solidity",
        "Cell: Max diameter µm",
        "Cell: Min diameter µm",
        "Nucleus/Cell area ratio",
        "Hematoxylin: Nucleus: Mean",
        "Hematoxylin: Nucleus: Median",
        "Hematoxylin: Nucleus: Min",
        "Hematoxylin: Nucleus: Max",
        "Hematoxylin: Nucleus: Std.Dev.",
        "Hematoxylin: Cytoplasm: Mean",
        "Hematoxylin: Cytoplasm: Median",
        "Hematoxylin: Cytoplasm: Min",
        "Hematoxylin: Cytoplasm: Max",
        "Hematoxylin: Cytoplasm: Std.Dev.",
        "Hematoxylin: Membrane: Mean",
        "Hematoxylin: Membrane: Median",
        "Hematoxylin: Membrane: Min",
        "Hematoxylin: Membrane: Max",
        "Hematoxylin: Membrane: Std.Dev.",
        "Hematoxylin: Cell: Mean",
        "Hematoxylin: Cell: Median",
        "Hematoxylin: Cell: Min",
        "Hematoxylin: Cell: Max",
        "Hematoxylin: Cell: Std.Dev.",
        "DAB: Nucleus: Mean",
        "DAB: Nucleus: Median",
        "DAB: Nucleus: Min",
        "DAB: Nucleus: Max",
        "DAB: Nucleus: Std.Dev.",
        "DAB: Cytoplasm: Mean",
        "DAB: Cytoplasm: Median",
        "DAB: Cytoplasm: Min",
        "DAB: Cytoplasm: Max",
        "DAB: Cytoplasm: Std.Dev.",
        "DAB: Membrane: Mean",
        "DAB: Membrane: Median",
        "DAB: Membrane: Min",
        "DAB: Membrane: Max",
        "DAB: Membrane: Std.Dev.",
        "DAB: Cell: Mean",
        "DAB: Cell: Median",
        "DAB: Cell: Min",
        "DAB: Cell: Max",
        "DAB: Cell: Std.Dev."
      ]
    },
    "normalizer": {
      "offsets": [
        0.0,
        0.0,
        0.0,
        0.0,
        0.0,
        0.0,
        0.0,
        0.0,
        0.0,
        0.0,
        0.0,
        0.0,
        0.0,
        0.0,
        0.0,
        0.0,
        0.0,
        0.0,
        0.0,
        0.0,
        0.0,
        0.0,
        0.0,
        0.0,
        0.0,
        0.0,
        0.0,
        0.0,
        0.0,
        0.0,
        0.0,
        0.0,
        0.0,
        0.0,
        0.0,
        0.0,
        0.0,
        0.0,
        0.0,
        0.0,
        0.0,
        0.0,
        0.0,
        0.0,
        0.0,
        0.0,
        0.0,
        0.0,
        0.0,
        0.0,
        0.0,
        0.0,
        0.0,
        0.0
      ],
      "scales": [
        1.0,
        1.0,
        1.0,
        1.0,
        1.0,
        1.0,
        1.0,
        1.0,
        1.0,
        1.0,
        1.0,
        1.0,
        1.0,
        1.0,
        1.0,
        1.0,
        1.0,
        1.0,
        1.0,
        1.0,
        1.0,
        1.0,
        1.0,
        1.0,
        1.0,
        1.0,
        1.0,
        1.0,
        1.0,
        1.0,
        1.0,
        1.0,
        1.0,
        1.0,
        1.0,
        1.0,
        1.0,
        1.0,
        1.0,
        1.0,
        1.0,
        1.0,
        1.0,
        1.0,
        1.0,
        1.0,
        1.0,
        1.0,
        1.0,
        1.0,
        1.0,
        1.0,
        1.0,
        1.0
      ],
      "missingValue": 0.0
    }
  },
  "classifier": {
    "class": "ANN_MLP",
    "statmodel": {
      "opencv_ml_ann_mlp": {
        "format": 3,
        "layer_sizes": [
          54,
          3
        ],
        "activation_function": "SIGMOID_SYM",
        "f_param1": 1.0,
        "f_param2": 1.0,
        "min_val": -9.4999999999999996e-01,
        "max_val": 9.4999999999999996e-01,
        "min_val1": -9.7999999999999998e-01,
        "max_val1": 9.7999999999999998e-01,
        "training_params": {
          "train_method": "RPROP",
          "dw0": 1.0000000000000001e-01,
          "dw_plus": 1.2000000000000000e+00,
          "dw_minus": 5.0000000000000000e-01,
          "dw_min": 1.1920928955078125e-07,
          "dw_max": 50.0,
          "term_criteria": {
            "epsilon": 1.0000000000000000e-02,
            "iterations": 1000
          }
        },
        "input_scale": [
          8.1189078260688046e+00,
          -5.6826624212145926e+00,
          5.5565453553659258e-02,
          -1.5841918297354083e+00,
          1.7327567617468298e-01,
          -3.3207911059827571e+00,
          1.0518523346194248e+01,
          -9.3497789788218153e+00,
          2.3201472758287956e+01,
          -2.2887871436090908e+01,
          4.6404624012463325e-01,
          -3.2724301989015370e+00,
          6.0249880616398299e-01,
          -2.9620159813809268e+00,
          1.6197070878566852e-02,
          -1.7026191319044173e+00,
          9.5657303355733803e-02,
          -3.7065112636673851e+00,
          9.9388649110212697e+00,
          -7.9162529809883555e+00,
          2.7212072109457253e+01,
          -2.6203787344460515e+01,
          2.8162226093273152e-01,
          -4.0208113121297941e+00,
          3.1015026016297587e-01,
          -3.0126761054100273e+00,
          8.1153076731014835e+00,
          -2.4022971664478869e+00,
          5.4062800887451221e+00,
          -2.1192206803405731e+00,
          5.2405476095210402e+00,
          -2.0520088758101576e+00,
          8.5718706094428985e+00,
          -1.3478197416093733e+00,
          3.8859939628105429e+00,
          -2.4571029444354697e+00,
          2.2276414558178402e+01,
          -2.1258425045189662e+00,
          1.1028231617887462e+01,
          -1.7097550913951232e+00,
          1.1200937383840420e+01,
          -1.5458880550213394e+00,
          1.4063393166151677e+01,
          1.1156685308403697e-01,
          4.7228738142047746e+00,
          -2.3793267654533667e+00,
          2.2635683467791857e+01,
          -1.9681138540854173e+00,
          9.7208936534785657e+00,
          -1.6056479469791713e+00,
          1.0189577287161338e+01,
          -1.4281953960944158e+00,
          1.5190782218874700e+01,
          -2.0079205978732934e-01,
          4.2383609131588313e+00,
          -1.9177609593816165e+00,
          1.5856399658492345e+01,
          -1.6190542280391933e+00,
          8.1401078442466783e+00,
          -1.8314516020687754e+00,
          7.6718508418428613e+00,
          -1.4820459822245931e+00,
          1.3986096523409287e+01,
          1.1656562302562511e-01,
          3.9218590723307116e+00,
          -2.5143053477607258e+00,
          1.4731757933373270e+01,
          -2.0590635310279728e+00,
          5.0180709445264844e+00,
          -5.2099876748358520e-01,
          4.7746527617629990e+00,
          -4.9963394084468349e-01,
          9.8342475261912288e+00,
          3.2616048632335226e-01,
          3.5449363232751354e+00,
          -8.9856139173250693e-01,
          2.2026919008130140e+01,
          -1.1383127810946263e+00,
          1.4142712827947628e+01,
          -1.2418119036488569e+00,
          1.6282926630919889e+01,
          -1.2597353035720189e+00,
          1.8390522782129704e+01,
          6.4547521910752281e-01,
          3.8705263012905848e+00,
          -1.2128482186312950e+00,
          1.8027234192175825e+01,
          -1.0490654794207306e+00,
          1.4073530318408288e+01,
          -1.2012994089690188e+00,
          1.7071440194956566e+01,
          -1.2755335456034274e+00,
          1.8045787885871245e+01,
          3.3714953083359572e-01,
          4.4733165775091583e+00,
          -1.1580489303896182e+00,
          1.6838218045850812e+01,
          -1.0174199806606474e+00,
          9.2209358793689145e+00,
          -8.6252676726648947e-01,
          9.7519826563039320e+00,
          -8.2422388864991913e-01,
          1.5351255894311086e+01,
          9.0165947655681677e-01,
          3.5091326351402348e+00,
          -1.1553184777518835e+00,
          1.3444007516803014e+01,
          -9.6730654693741136e-01
        ],
        "output_scale": [
          1.0,
          0.0,
          1.0,
          0.0,
          1.0,
          0.0
        ],
        "inv_output_scale": [
          1.0,
          0.0,
          1.0,
          0.0,
          1.0,
          0.0
        ],
        "weights": [
          [
            6.4511684828390448e-01,
            -2.3639574406456415e-01,
            -2.7251615225273584e-01,
            4.6151467237269206e-02,
            -1.3044472920527561e-01,
            4.5610412197181632e-01,
            6.0352353917228296e-01,
            -6.8723866221532814e-01,
            -7.1352827185069012e-01,
            -1.7849029675373357e-02,
            7.1312827103572418e-01,
            -8.9015817994896718e-02,
            -2.4889253223585828e-01,
            -9.2774507080855040e-01,
            7.1676708053304572e-01,
            4.6224523575058196e-01,
            5.3037836856128007e-01,
            -5.4832136892042138e-01,
            1.0775701631818129e+00,
            2.3400932752710366e-01,
            -9.7785076401423504e-02,
            -6.3173876724360256e-01,
            -1.1460445354132209e-01,
            2.7732821717924738e-01,
            -2.4005256738860553e-01,
            4.1854136903329253e-01,
            -1.2118632791813109e+00,
            5.0560779475581663e-01,
            2.4861845998319937e-01,
            3.2688441482521885e-01,
            3.7425381519660056e-01,
            4.7826330720671928e-01,
            -6.3141095814359605e-01,
            1.5275733653858536e+00,
            1.1368396979146698e+00,
            -4.6213019240457814e-01,
            -7.9432310285342234e-01,
            -2.7872177405998827e-01,
            1.0051516304151140e-01,
            -4.1718971232830193e-01,
            7.5960879451266650e-01,
            3.5586854799947859e-01,
            6.0128678872120134e-01,
            4.5215994317203489e-01,
            -1.2132415565269796e+00,
            3.6194263973225560e-01,
            5.7288065041549607e-01,
            -7.5250853384835614e-01,
            2.1666018194236827e+00,
            -9.1050641466993221e-01,
            -7.1859295564777903e-01,
            1.0280042042944837e+00,
            1.8374001643252413e+00,
            -4.2852348469643897e-01,
            6.1414170438136817e-01,
            -3.1874156438855294e-01,
            -5.2859975023106398e-01,
            5.6917430608744393e-02,
            3.5173283391713606e-01,
            -3.6247489170894936e-01,
            9.6174273932381849e-01,
            9.0405879129570793e-02,
            -4.7998026429917001e-01,
            3.5316865638552164e-01,
            4.0374137395366144e-01,
            -6.5087071332303537e-01,
            6.1333897356999911e-01,
            -3.4225195265567643e-01,
            5.3413359345525924e-01,
            -3.1591566056146236e-01,
            -5.1622375810741883e-01,
            8.1916099128297587e-02,
            1.0507498378588036e+00,
            3.6838737699839508e-01,
            -8.3429570361848449e-01,
            -5.5422724996609651e-01,
            -7.7854977575704898e-01,
            3.5061745817097417e-01,
            1.0179315406569553e-01,
            -4.4615902513689404e-01,
            -7.0898227316844364e-01,
            -5.0524510637524722e-01,
            -1.1235078222704795e-01,
            -3.2956420525153962e-01,
            1.1929579534589192e+00,
            -4.3155455964913397e-01,
            -1.7443055978471592e-01,
            -3.9304707148099727e-01,
            -3.9360972536173516e-02,
            -1.2657411987393923e+00,
            -4.4088391680523054e-01,
            -2.2998713750860106e-01,
            -3.1679550587705091e-01,
            1.3792581875027459e+00,
            9.3196086910468723e-01,
            -7.9955146274488609e-01,
            8.8751462841283113e-01,
            5.0210819362100634e-01,
            -5.5917009490034952e-01,
            1.4584993043535410e+00,
            2.7497984555886076e-02,
            1.6956784388736218e-01,
            -8.5926337005271520e+00,
            2.1943953327215091e+00,
            1.6211599558437801e+00,
            -9.4851764873594941e+00,
            3.1558059612479683e+00,
            -2.0651302434679604e+00,
            -2.2098449979985539e+00,
            1.9506391464063872e+00,
            2.3120175608091958e-02,
            -1.4026366343646597e+00,
            4.2400858285772880e-01,
            1.2240592236943595e+00,
            -2.4475377740629787e+00,
            8.8459303884940299e-01,
            2.8980041044121241e-01,
            1.3738537417025967e+00,
            -7.8034577676193373e-01,
            -5.3769302870877533e-01,
            2.6988936085309045e-01,
            -9.8471793900327698e-01,
            1.2427048481557741e+00,
            3.4406881589751881e-01,
            -4.5095396261849907e-01,
            -5.0292823799838748e-01,
            1.0923046532980509e+00,
            -8.0220672589488096e-01,
            -5.5510921124561308e-01,
            -4.3511546492251840e-01,
            8.0539746907018905e-01,
            9.8887568022151007e-01,
            3.8549725726040063e-01,
            -6.2179816091425033e-02,
            1.9228717393381528e-02,
            1.9180841833244910e+00,
            1.0795305047201155e-01,
            4.6535447293548304e-01,
            1.3922122613282251e+00,
            9.1725977159479155e-01,
            -1.0256407444880820e+00,
            3.5121071516860081e-01,
            -8.2697877758078009e-01,
            -8.2508098204206737e-01,
            -5.3360200641691191e-01,
            6.3751292842061924e-01,
            8.3929344835503128e-01,
            5.3619394814570809e-01,
            5.6607211915042499e-01,
            -1.1529932728778118e+00,
            -1.0825085435893778e-02,
            -9.3361341303489231e-01,
            -1.1307290630700086e+00,
            9.1428342426483300e-01,
            -2.8032372798609306e-01,
            -1.4800839391139617e-02,
            5.6500036638891904e-01,
            -8.0231098895437414e-01,
            -1.0597067896076957e+00,
            -1.8350285443622454e+00,
            2.7494089843113878e+00,
            8.7224060996996089e-02,
            4.9325170927666004e+00,
            -7.1057010781589307e+00,
            -6.6475363327447656e+00
          ]
        ]
      }
    }
  },
  "pathClasses": [
    {
      "name": "KI67neg",
      "color": [
        255,
        0,
        0
      ]
    },
    {
      "name": "KI67pos",
      "color": [
        178,
        254,
        140
      ]
    },
    {
      "name": "Other",
      "color": [
        255,
        200,
        0
      ]
    }
  ],
  "requestProbabilityEstimate": false,
  "filter": "DETECTIONS_ALL",
  "timestamp": 1728385069338
}